<?xml version="1.0" encoding="UTF-8"?>
<BIF VERSION="0.3"  xmlns="http://www.cs.ubc.ca/labs/lci/fopi/ve/XMLBIFv0_3"
	xmlns:xsi="http://www.w3.org/2001/XMLSchema-instance"
	xsi:schemaLocation="http://www.cs.ubc.ca/labs/lci/fopi/ve/XMLBIFv0_3 http://www.cs.ubc.ca/labs/lci/fopi/ve/XMLBIFv0_3/XMLBIFv0_3.xsd">
<NETWORK>
<NAME>Untitled</NAME>
<PROPERTY>detailed = </PROPERTY>
<PROPERTY>short = </PROPERTY>

<VARIABLE TYPE="nature">
	<NAME>Battery</NAME>
	<OUTCOME>T</OUTCOME>
	<OUTCOME>F</OUTCOME>
	<PROPERTY>position = (7041.68359375, 5126.91015625)</PROPERTY>
</VARIABLE>

<VARIABLE TYPE="nature">
	<NAME>Ignition</NAME>
	<OUTCOME>T</OUTCOME>
	<OUTCOME>F</OUTCOME>
	<PROPERTY>position = (7142.22265625, 5183.982421875)</PROPERTY>
</VARIABLE>

<VARIABLE TYPE="nature">
	<NAME>Radio</NAME>
	<OUTCOME>T</OUTCOME>
	<OUTCOME>F</OUTCOME>
	<PROPERTY>position = (6997.55419921875, 5235.3095703125)</PROPERTY>
</VARIABLE>

<VARIABLE TYPE="nature">
	<NAME>Starts</NAME>
	<OUTCOME>T</OUTCOME>
	<OUTCOME>F</OUTCOME>
	<PROPERTY>position = (7201.52734375, 5356.78759765625)</PROPERTY>
</VARIABLE>

<VARIABLE TYPE="nature">
	<NAME>Gas</NAME>
	<OUTCOME>T</OUTCOME>
	<OUTCOME>F</OUTCOME>
	<PROPERTY>position = (7068.20947265625, 5298.1689453125)</PROPERTY>
</VARIABLE>

<VARIABLE TYPE="nature">
	<NAME>Moves</NAME>
	<OUTCOME>T</OUTCOME>
	<OUTCOME>F</OUTCOME>
	<PROPERTY>position = (7355.771484375, 5411.53515625)</PROPERTY>
</VARIABLE>

<VARIABLE TYPE="nature">
	<NAME>Icyweather</NAME>
	<OUTCOME>T</OUTCOME>
	<OUTCOME>F</OUTCOME>
	<PROPERTY>position = (7250.74365234375, 5067.41064453125)</PROPERTY>
</VARIABLE>

<VARIABLE TYPE="nature">
	<NAME>Meltdown</NAME>
	<OUTCOME>T</OUTCOME>
	<OUTCOME>F</OUTCOME>
	<PROPERTY>position = (7244.4580078125, 5166.4697265625)</PROPERTY>
</VARIABLE>

<VARIABLE TYPE="nature">
	<NAME>Survives</NAME>
	<OUTCOME>T</OUTCOME>
	<OUTCOME>F</OUTCOME>
	<PROPERTY>position = (7283.8515625, 5277.58935546875)</PROPERTY>
</VARIABLE>

<VARIABLE TYPE="nature">
	<NAME>bicycle</NAME>
	<OUTCOME>T</OUTCOME>
	<OUTCOME>F</OUTCOME>
	<PROPERTY>position = (7420.53564453125, 5321.29541015625)</PROPERTY>
</VARIABLE>

<VARIABLE TYPE="nature">
	<NAME>Waterleak</NAME>
	<OUTCOME>T</OUTCOME>
	<OUTCOME>F</OUTCOME>
	<PROPERTY>position = (7391.48193359375, 5135.87255859375)</PROPERTY>
</VARIABLE>

<VARIABLE TYPE="nature">
	<NAME>Waterleakwarning</NAME>
	<OUTCOME>T</OUTCOME>
	<OUTCOME>F</OUTCOME>
	<PROPERTY>position = (7540.14453125, 5056.46484375)</PROPERTY>
</VARIABLE>

<VARIABLE TYPE="nature">
	<NAME>Pumpfailure</NAME>
	<OUTCOME>T</OUTCOME>
	<OUTCOME>F</OUTCOME>
	<PROPERTY>position = (7412.423828125, 5243.853515625)</PROPERTY>
</VARIABLE>

<VARIABLE TYPE="nature">
	<NAME>Pumpfailurewarning</NAME>
	<OUTCOME>T</OUTCOME>
	<OUTCOME>F</OUTCOME>
	<PROPERTY>position = (7648.33837890625, 5313.86767578125)</PROPERTY>
</VARIABLE>

<VARIABLE TYPE="nature">
	<NAME>incompetence</NAME>
	<OUTCOME>T</OUTCOME>
	<OUTCOME>F</OUTCOME>
	<PROPERTY>position = (7837.736328125, 5145.72607421875)</PROPERTY>
</VARIABLE>

<VARIABLE TYPE="nature">
	<NAME>Emergency</NAME>
	<OUTCOME>T</OUTCOME>
	<OUTCOME>F</OUTCOME>
	<PROPERTY>position = (7869.4453125, 5308.732421875)</PROPERTY>
</VARIABLE>

<VARIABLE TYPE="nature">
	<NAME>awake</NAME>
	<OUTCOME>T</OUTCOME>
	<OUTCOME>F</OUTCOME>
	<PROPERTY>position = (7707.50146484375, 5119.10888671875)</PROPERTY>
</VARIABLE>

<VARIABLE TYPE="nature">
	<NAME>uneducated</NAME>
	<OUTCOME>T</OUTCOME>
	<OUTCOME>F</OUTCOME>
	<PROPERTY>position = (7748.52001953125, 5264.7060546875)</PROPERTY>
</VARIABLE>

<VARIABLE TYPE="nature">
	<NAME>onemorewarning</NAME>
	<OUTCOME>T</OUTCOME>
	<OUTCOME>F</OUTCOME>
	<PROPERTY>position = (7505.50439453125, 5183.765625)</PROPERTY>
</VARIABLE>

<VARIABLE TYPE="nature">
	<NAME>HS Escape</NAME>
	<OUTCOME>T</OUTCOME>
	<OUTCOME>F</OUTCOME>
	<PROPERTY>position = (7519.21923828125, 5356.18505859375)</PROPERTY>
</VARIABLE>

<DEFINITION>
	<FOR>Battery</FOR>
	<GIVEN>Icyweather</GIVEN>
	<TABLE>0.8 0.2 0.95 0.05</TABLE>
</DEFINITION>

<DEFINITION>
	<FOR>Ignition</FOR>
	<GIVEN>Battery</GIVEN>
	<TABLE>0.95 0.05 0.0 1.0</TABLE>
</DEFINITION>

<DEFINITION>
	<FOR>Radio</FOR>
	<GIVEN>Battery</GIVEN>
	<TABLE>0.95 0.05 0.0 1.0</TABLE>
</DEFINITION>

<DEFINITION>
	<FOR>Starts</FOR>
	<GIVEN>Ignition</GIVEN>
	<GIVEN>Gas</GIVEN>
	<TABLE>0.95 0.05 0.0 1.0 0.0 1.0 0.0 1.0</TABLE>
</DEFINITION>

<DEFINITION>
	<FOR>Gas</FOR>
	<TABLE>0.95 0.05</TABLE>
</DEFINITION>

<DEFINITION>
	<FOR>Moves</FOR>
	<GIVEN>Starts</GIVEN>
	<TABLE>0.95 0.05 0.0 1.0</TABLE>
</DEFINITION>

<DEFINITION>
	<FOR>Icyweather</FOR>
	<TABLE>0.05 0.95</TABLE>
</DEFINITION>

<DEFINITION>
	<FOR>Meltdown</FOR>
	<GIVEN>Waterleak</GIVEN>
	<GIVEN>Pumpfailure</GIVEN>
	<TABLE>0.2 0.8 0.1 0.9 0.15 0.85 0.001 0.999</TABLE>
</DEFINITION>

<DEFINITION>
	<FOR>Survives</FOR>
	<GIVEN>Moves</GIVEN>
	<GIVEN>Meltdown</GIVEN>
	<GIVEN>bicycle</GIVEN>
	<TABLE>0.9 0.1 0.9 0.1 1.0 0.0 1.0 0.0 0.6 0.4 0.6 0.4 1.0 0.0 1.0 0.0</TABLE>
</DEFINITION>

<DEFINITION>
	<FOR>bicycle</FOR>
	<TABLE>0.9 0.1</TABLE>
</DEFINITION>

<DEFINITION>
	<FOR>Waterleak</FOR>
	<GIVEN>Icyweather</GIVEN>
	<TABLE>0.2 0.8 0.1 0.9</TABLE>
</DEFINITION>

<DEFINITION>
	<FOR>Waterleakwarning</FOR>
	<GIVEN>Waterleak</GIVEN>
	<TABLE>0.9 0.1 0.05 0.95</TABLE>
</DEFINITION>

<DEFINITION>
	<FOR>Pumpfailure</FOR>
	<TABLE>0.1 0.9</TABLE>
</DEFINITION>

<DEFINITION>
	<FOR>Pumpfailurewarning</FOR>
	<GIVEN>Pumpfailure</GIVEN>
	<TABLE>0.9 0.1 0.05 0.95</TABLE>
</DEFINITION>

<DEFINITION>
	<FOR>incompetence</FOR>
	<GIVEN>awake</GIVEN>
	<TABLE>0.4 0.6 0.85 0.15</TABLE>
</DEFINITION>

<DEFINITION>
	<FOR>Emergency</FOR>
	<GIVEN>incompetence</GIVEN>
	<GIVEN>uneducated</GIVEN>
	<TABLE>0.1 0.9 0.4 0.6 0.6 0.4 0.9 0.1</TABLE>
</DEFINITION>

<DEFINITION>
	<FOR>awake</FOR>
	<GIVEN>Waterleakwarning</GIVEN>
	<GIVEN>Pumpfailurewarning</GIVEN>
	<TABLE>0.9 0.1 0.8 0.2 0.95 0.05 0.0 1.0</TABLE>
</DEFINITION>

<DEFINITION>
	<FOR>uneducated</FOR>
	<GIVEN>awake</GIVEN>
	<TABLE>0.5 0.5 0.95 0.05</TABLE>
</DEFINITION>

<DEFINITION>
	<FOR>onemorewarning</FOR>
	<GIVEN>Waterleakwarning</GIVEN>
	<GIVEN>Pumpfailurewarning</GIVEN>
	<TABLE>0.9 0.1 0.6 0.4 0.4 0.6 0.1 0.9</TABLE>
</DEFINITION>

<DEFINITION>
	<FOR>HS Escape</FOR>
	<GIVEN>Moves</GIVEN>
	<GIVEN>onemorewarning</GIVEN>
	<TABLE>0.9 0.1 0.3 0.7 0.2 0.8 0.1 0.9</TABLE>
</DEFINITION>
</NETWORK>
</BIF>
